{
  "name": "2x16x1-switch-softplus",
  "inputs": {
    "x": [
      [
        -0.6054740836037117,
        1.10939627039338,
        -1.2419859503886257,
        -0.41757583267545045,
        1.6271368561322688,
        0.984446719523485,
        -0.9215116943206868,
        -0.954098411323135,
        0.6501305690709963,
        0.04096226341392467,
        -0.23312791949420913,
        0.38911886813071694,
        1.770886375526978,
        -0.013969026356294567,
        -0.23094603408410921,
        1.4078894834964384
      ],
      [
        -0.739908432574935,
        -0.10359953397095538,
        0.4061469524836233,
        -1.128024986602207,
        0.9381179632810396,
        -0.6599289620690475,
        -0.6463583611747382,
        -0.1976541039862149,
        -0.592680953598325,
        1.8209179266233722,
        -0.9551940456210908,
        -0.3467236338997856,
        0.2731884428438913,
        0.6271073749683487,
        -0.4811224383414954,
        1.0890135278140018
      ]
    ],
    "weights": [
      [
        -0.5479210682576462
      ],
      [
        -0.8773518063860573
      ],
      [
        -0.3798845952869498
      ],
      [
        -0.5743379709363943
      ],
      [
        -0.44500722640939494
      ],
      [
        0.598827438330636
      ],
      [
        -1.8437578049363046
      ],
      [
        0.2678509278455049
      ],
      [
        -0.5568561136874223
      ],
      [
        0.6312708035477814
      ],
      [
        -0.29563716299390536
      ],
      [
        0.5516234736679693
      ],
      [
        0.8795675910720339
      ],
      [
        -0.9816595432261288
      ],
      [
        0.11928487868374651
      ],
      [
        -1.56518758765268
      ]
    ],
    "bias": [
      -0.5491543991249429
    ]
  },
  "params": {
    "mode": "switch",
    "activation": "softplus",
    "convex_fraction": 0.5,
    "dtype": "float64"
  },
  "expected_output": [
    [
      1.6184425358800907
    ],
    [
      0.2908164284931154
    ]
  ],
  "expected_grads": {
    "weights": [
      [
        0.35361174977044385
      ],
      [
        -0.09445741877556202
      ],
      [
        -0.004301094480574363
      ],
      [
        0.47815504733428327
      ],
      [
        -0.551955498084844
      ],
      [
        0.4591903248751805
      ],
      [
        0.3562335174622788
      ],
      [
        -0.8937110853590724
      ],
      [
        0.1463994074857311
      ],
      [
        1.0096525175917748
      ],
      [
        0.39037060084456954
      ],
      [
        0.13548172306254713
      ],
      [
        1.6086024803296795
      ],
      [
        -0.23615126598652836
      ],
      [
        -0.44852316416488236
      ],
      [
        -0.5827514468759176
      ]
    ],
    "bias": [
      0.8617715158143469
    ]
  },
  "atol": 1e-06,
  "rtol": 1e-06
}
