{
  "name": "3x5x11-abs-selu",
  "inputs": {
    "x": [
      [
        -0.9043726523000687,
        -0.9481131844744655,
        2.0513268188629956,
        1.046039391575261,
        0.7742783875070404
      ],
      [
        -0.40231545910787053,
        0.03848287162483824,
        0.7181374774095011,
        2.010494168065465,
        -0.8903850472237124
      ],
      [
        -1.9658222326800585,
        -1.579166664281836,
        -2.182543005878734,
        0.23166430097847965,
        1.97407201865673
      ]
    ],
    "weights": [
      [
        0.9283966780425763,
        0.46581835707831754,
        0.15170926546122734,
        -1.4260549906148352,
        0.5329367421673226,
        -0.4043814686061127,
        -1.0310213836205593,
        -0.3619282679019912,
        0.47012273124636367,
        -0.25127194540204684,
        -0.8712367705135368
      ],
      [
        -0.30860807040924776,
        1.199335435225713,
        -1.9328723362223057,
        -0.5916346074522202,
        -0.6405656009966536,
        -1.8397638119912827,
        -0.4085062470879833,
        -0.4157254386474972,
        0.578890092645995,
        0.3012238132159264,
        -2.6050975672508683
      ],
      [
        0.9631739953482423,
        0.4094776150004876,
        -0.1399972949554248,
        2.6535260338586344,
        0.7044554412347209,
        0.3596489021681491,
        0.30854409740921546,
        0.3351867467935705,
        -2.026332359180569,
        -0.05714479444758994,
        -1.0361949498990337
      ],
      [
        -0.1516068731866404,
        0.38667128791178557,
        1.5196611787518426,
        -1.8420075841719015,
        0.540643457970774,
        0.357223421826597,
        -0.7208905643400211,
        0.30223204672941095,
        1.6545438079917083,
        0.2550991358380357,
        0.03899277675530286
      ],
      [
        -0.8500300007946587,
        -2.177778208131035,
        -1.4100623859469743,
        -0.8811647154063035,
        -0.11027560437321411,
        0.34876169636533705,
        -1.2459433022418325,
        -1.9660788271128087,
        -0.423672383538584,
        -1.0911714740246727,
        -0.5006777212437453
      ]
    ],
    "bias": [
      2.656494020489193,
      0.7619394381365993,
      1.2852868179664045,
      0.5443766516499461,
      1.8156671978392185,
      -1.0881546024701678,
      0.27957833275826016,
      0.19024207616406463,
      0.5214656522401154,
      -0.8380202675654406,
      0.1936834382277386
    ]
  },
  "params": {
    "mode": "absolute",
    "activation": "selu",
    "convex_fraction": 0.5,
    "dtype": "float64"
  },
  "expected_output": [
    [
      4.535680040264163,
      2.242419420296457,
      2.399895463033083,
      7.088116437833039,
      2.9654478242489897,
      -1.4723017124375835,
      1.2844646767154506,
      1.5189226018914725,
      1.7525752751844106,
      -0.12810265000127777,
      -0.5360048240381311
    ],
    [
      2.6630057342065134,
      -0.38465578966611413,
      3.3611326638118224,
      5.0620531301349825,
      3.2787943175191887,
      -0.7066916296237686,
      0.62814610074884,
      -0.8842596641579501,
      1.7430252280054734,
      -1.4133698914116593,
      0.4816515812154743
    ],
    [
      -0.07725778958123286,
      1.5206157291430504,
      0.8035673310122023,
      -1.7561771217416722,
      -1.3407713255123153,
      -1.743661022874279,
      -0.4614155660017226,
      1.5299284628363725,
      -4.748932041990172,
      0.43037734564331903,
      -7.246715534171054
    ]
  ],
  "expected_grads": {
    "weights": [
      [
        -4.677174178624455,
        -3.5682741739151425,
        -3.4384298537304403,
        1.3767172291068164,
        -2.1933311771249464,
        0.7098483010281598,
        2.9484312520366984,
        1.0875615359395852,
        -2.0765517234622166,
        3.9830039071375722,
        3.5292512681195376
      ],
      [
        3.610078412208395,
        -2.6025613806268666,
        2.6149814438269914,
        0.9587849696401918,
        1.6147799577481692,
        0.2533078209410178,
        2.0648073970619407,
        0.5466524726216448,
        -1.6638893178821945,
        -3.052443783957415,
        2.6062940587934236
      ],
      [
        -0.7586301009609997,
        0.8484523092988638,
        -0.616678779152835,
        2.9056835444407625,
        1.9990425279559076,
        1.309807373672811,
        -0.5101588342881769,
        0.7471846608098076,
        2.271043143764473,
        -0.01206851507618012,
        -0.7787959948046819
      ],
      [
        -3.6008938089082676,
        4.103784782216735,
        3.454912739897509,
        -3.2119481367942626,
        3.3081828298975324,
        2.416149492034947,
        -3.010614825882385,
        2.4154755422500784,
        0.2794947171480544,
        3.519088618730848,
        3.9087753087585497
      ],
      [
        -3.1961088922116687,
        -1.6648008838160422,
        -1.9521660341581537,
        0.11819878054097899,
        -0.7018421790405682,
        -0.6863684980373819,
        -1.434791030874294,
        0.2999133208447802,
        -2.065014818697364,
        -2.4990254559043024,
        -1.7511644880841004
      ]
    ],
    "bias": [
      3.78224352814982,
      3.474845527762227,
      3.152102962644676,
      2.1033241957013615,
      2.518729989020585,
      1.3516436574434465,
      2.654288891790202,
      1.5180486023780304,
      1.0712991667105598,
      3.4291239714434596,
      3.377849733254834
    ]
  },
  "atol": 1e-06,
  "rtol": 1e-06
}
