{
  "name": "4x2x3-abs-relu-c0",
  "inputs": {
    "x": [
      [
        0.21650201156677099,
        -0.48749339296273325
      ],
      [
        0.32110976188018636,
        0.14917085174258096
      ],
      [
        -0.35142604093138996,
        0.02300253428204381
      ],
      [
        -0.3932014340667857,
        2.058179893824171
      ]
    ],
    "weights": [
      [
        -0.9322096460641529,
        -0.5277069678990002,
        -0.7461125357782846
      ],
      [
        -0.27894168270770764,
        0.7259823966312113,
        -0.4861438353157496
      ]
    ],
    "bias": [
      0.7247669076391655,
      -0.9074077661259187,
      1.5425557189845842
    ]
  },
  "params": {
    "mode": "absolute",
    "activation": "relu",
    "convex_fraction": 0.0,
    "dtype": "float64"
  },
  "expected_output": [
    [
      -0.0,
      -1.1470697678229498,
      -0.0
    ],
    [
      -0.0,
      -0.6296604948657576,
      -0.0
    ],
    [
      -0.0,
      -1.0761583016599026,
      -0.0
    ],
    [
      -0.0,
      -0.0,
      -0.0
    ]
  ],
  "expected_grads": {
    "weights": [
      [
        0.0,
        -0.18618573260908988,
        0.0
      ],
      [
        0.0,
        -0.31532000699385776,
        0.0
      ]
    ],
    "bias": [
      0.0,
      3.0000000001972893,
      0.0
    ]
  },
  "atol": 1e-06,
  "rtol": 1e-06
}
