{
  "name": "8x7x12-switch-elu",
  "inputs": {
    "x": [
      [
        -1.5164623881203205,
        0.11696745420119711,
        0.22683125744646698,
        0.6496097622121042,
        -0.5378748113436017,
        -1.2303523692913854,
        1.795664010823894
      ],
      [
        -1.1121955921657667,
        0.37791981726738516,
        0.5403840627111438,
        0.013477557960494838,
        -0.3062366258715116,
        -0.7088498848205633,
        -0.3964006354464089
      ],
      [
        -0.5348637241169804,
        -0.48894072032420544,
        1.713757572329745,
        -1.3582789722123425,
        0.969558455434074,
        -0.9064937244011742,
        0.35623947657885313
      ],
      [
        1.233448319381641,
        -2.224822548292117,
        -0.3876296574175028,
        -1.4866316935196655,
        -2.3508506879577706,
        1.0421966015629667,
        0.20216274945070048
      ],
      [
        -0.6224016052699902,
        -0.31688064931366405,
        -1.1671296843773826,
        -1.2259341644576698,
        -1.3036729711198958,
        0.8421756063159236,
        -0.7688907772042465
      ],
      [
        0.5319725651632731,
        0.18356676935692234,
        0.275879150825319,
        1.237771750621282,
        0.026549799683873745,
        -1.4441665472508503,
        0.7450388657115379
      ],
      [
        -2.2097234863085773,
        0.07763416340202475,
        1.592373274070037,
        -0.7948223900938128,
        0.11138302314385123,
        -1.3287569542268693,
        1.427105682830188
      ],
      [
        -1.2700426555678772,
        0.8834758856028337,
        -1.6148872846051852,
        -0.691034265572204,
        0.3429833650556855,
        0.8740116440585638,
        -1.5826480839748698
      ]
    ],
    "weights": [
      [
        1.0557818055518717,
        -1.7814787634763323,
        -0.030728569485734006,
        -0.8824949049305904,
        -0.9779041833839007,
        0.25128015519879743,
        0.4083173556083305,
        -0.23830391055120287,
        2.0029883647065327,
        0.756121909245547,
        -0.4863528413348293,
        -0.4482951974426901
      ],
      [
        0.13213269211550477,
        -0.16653039990621488,
        -0.3105681477973703,
        -0.7481385703738742,
        0.9888596452315536,
        -0.08003091454010454,
        1.7503688816114715,
        0.06858847448322428,
        0.15829924150196928,
        -0.5587525450098124,
        -0.6467863969342369,
        -0.33423668142566665
      ],
      [
        -5.8817037011137315e-05,
        -0.399205992762681,
        1.9078029834435688,
        0.7430035362566894,
        -1.3754242933047318,
        0.5981226760816211,
        0.6541112769960207,
        1.40773502314653,
        1.5976744259744196,
        1.8695052385131503,
        -0.44568438259403015,
        0.27676383994640635
      ],
      [
        1.3269584899016884,
        -0.6843284298726284,
        -0.4280936615307006,
        -0.6459121533604435,
        -0.5132272938952562,
        -0.7435200317166187,
        1.710514388655233,
        0.6722146706534119,
        -1.4839159110129916,
        -2.5306790626170064,
        0.23819666032136927,
        -1.2993298236399837
      ],
      [
        -0.4843071276386564,
        -1.2727523635177236,
        -0.9223467761846253,
        0.3840768639535839,
        -0.2941127668576563,
        1.0048498495867968,
        -0.6448289280368497,
        -0.16353584839217594,
        -0.07866258308355124,
        -0.03384994992984217,
        0.989347935369824,
        -0.5366983213131463
      ],
      [
        0.2754083490419049,
        -1.705605045321656,
        -0.7041502608383688,
        -0.12441241891873916,
        -0.8357642287468942,
        1.1256805632778024,
        -0.13315618626231826,
        0.22342242001865587,
        -0.6753044631433567,
        -0.5502285487332166,
        -0.04365707509378336,
        -0.591685114446312
      ],
      [
        0.5740701094778948,
        1.0704395401044104,
        0.3325356964762825,
        -0.5549549765976807,
        -1.0833936725290858,
        -0.8481286447430214,
        -0.32108187160921453,
        -0.6783024592742662,
        0.3204717310426737,
        1.6896020022958906,
        0.1236535015159049,
        0.5375254653962274
      ]
    ],
    "bias": [
      1.2019215376449779,
      -0.883002073980896,
      -2.0666729072008447,
      0.015857618493682977,
      -0.31663385306146136,
      -0.11848189751300053,
      -0.24296432832909926,
      -0.6185114948973398,
      -0.9597598089468811,
      -0.21055863675582845,
      1.225079849088793,
      -1.0951574071980648
    ]
  },
  "params": {
    "mode": "switch",
    "activation": "elu",
    "convex_fraction": 0.5,
    "dtype": "float64"
  },
  "expected_output": [
    [
      -0.29208852733299273,
      -3.0078949652724414,
      -0.02372550833517062,
      -0.025534492355383315,
      0.029731806449384057,
      -0.017053153397492582,
      0.8678251410143036,
      0.6288583915453922,
      -0.3019494852759995,
      2.806980789594869,
      -0.7698715855629437,
      0.18063960123195827
    ],
    [
      -1.6293201369679362,
      -3.138706518446305,
      0.0580484901483721,
      -0.7143506006314536,
      -1.0756940665847963,
      -0.8702945688798556,
      0.16476015050264958,
      0.05273591496992831,
      -0.5291465063394767,
      -0.4549326198908916,
      -0.4353722555494395,
      -0.5411273780957995
    ],
    [
      -1.4528011719508025,
      -1.1032298116693706,
      2.1138540801778767,
      0.015491882238816368,
      0.19443138884132916,
      0.09757383449952262,
      -0.34188837897980795,
      1.2347393276983216,
      -0.8479964977253465,
      -0.7751647375823376,
      0.827590821972759,
      -1.437968898550589
    ],
    [
      -1.699889352463327,
      -0.21030482057910888,
      -1.592601113762436,
      -2.0014009088019096,
      -0.4543568194777891,
      -1.7010033554180044,
      -2.0676341020465783,
      -0.3896867894968449,
      -0.12328402869943655,
      -3.9619066068507167,
      -2.9520882068907337,
      -2.3372304488732136
    ],
    [
      -2.5697591593895384,
      -2.624683036879198,
      -0.4321062213827156,
      -2.6572495599816777,
      -3.506474555231481,
      -2.207329465244489,
      -1.712420662726021,
      -1.2105693620238784,
      -1.3805681912585852,
      -3.6341127930526405,
      -2.579661137677581,
      -1.9238674063440806
    ],
    [
      2.2712173621205105,
      0.24037372730532144,
      0.08771420074872838,
      1.033968922484934,
      0.6412789196767584,
      0.05663084504429894,
      2.8575926482032004,
      1.006753168306349,
      1.6528778673678417,
      2.895730499827257,
      0.8505885507839617,
      0.42386844862556
    ],
    [
      -1.96921069841173,
      -4.4288228286168705,
      2.018287434773862,
      -0.5527898975891845,
      0.12065691341111276,
      -0.143998135302276,
      -0.28578150664151364,
      1.4570632712759437,
      -2.0149570935329266,
      1.0219586598516366,
      -0.2754671780947897,
      -1.5160063180898242
    ],
    [
      -1.8354280733390194,
      -1.3467501708375393,
      -0.049537810926425396,
      -2.3424676448212094,
      -3.8274466893749457,
      -1.7391695997936722,
      -0.6964486131915231,
      -1.6565418837431944,
      -0.5744906154206479,
      -1.551022005411826,
      -0.7488140671390568,
      -0.4441942160964626
    ]
  ],
  "expected_grads": {
    "weights": [
      [
        -1.5157811787958053,
        6.012457880899547,
        0.9208303879404411,
        5.927407933370432,
        5.0244785327890895,
        -2.614526962929631,
        -3.0330732059269394,
        3.5309624948354212,
        0.8402681928032507,
        -3.052893667643275,
        5.500268571267952,
        4.847551444697729
      ],
      [
        -1.6810327849725581,
        0.8356518677032909,
        2.212345563634699,
        1.5384720057909362,
        1.0104693473067528,
        1.6844830597051441,
        0.856278354888218,
        -0.0014112870871940686,
        -2.4854044369249095,
        1.6646769580574983,
        1.3910798273286673,
        2.0473706143775416
      ],
      [
        -1.1795786889479132,
        -1.1977415823594129,
        3.5874892319043283,
        3.3587703001103364,
        0.7087820392825961,
        0.5781281942063288,
        1.2018710364714025,
        4.13771631713189,
        1.7934953575604595,
        3.6667543525936708,
        -1.1795786960533405,
        2.7739384620417695
      ],
      [
        -0.5728321568199135,
        3.644110300626835,
        2.207091696959651,
        4.649692620262158,
        2.7749134261512154,
        4.8197130695371015,
        1.3922992323500694,
        -0.6134860797146757,
        4.828307659465736,
        5.265770788298596,
        -2.079384657349692,
        4.591855820024193
      ],
      [
        3.0481604582632826,
        2.4073107027788865,
        2.9370715424192895,
        -0.6682871429575243,
        2.621345650766216,
        0.15190005342446966,
        3.5462446703604655,
        2.1565936805245656,
        2.7498983570239943,
        2.676503484622117,
        -0.7860724124952867,
        3.054454694506603
      ],
      [
        -2.23683170474942,
        2.6826734327300983,
        0.2095168909477252,
        1.7006638302063948,
        0.8563722886378855,
        -0.7011575817728044,
        1.0922951503289369,
        -5.254713322244697,
        0.9508573910466112,
        0.6108782955038805,
        2.860235632340391,
        1.583101550295396
      ],
      [
        2.291672053900129,
        3.8591497641959904,
        2.5007859889569772,
        -1.1800535446582217,
        0.009964089997538395,
        1.1607339729380328,
        -0.36807022496532227,
        1.337976655690909,
        1.4738715776729805,
        4.317894777727815,
        1.9039995251546316,
        3.4149874110767087
      ]
    ],
    "bias": [
      -3.3569004216360554,
      -2.8362965025507947,
      0.07004530289123068,
      -1.3023562956959722,
      0.06434235189090032,
      -2.313910627549376,
      -2.77244587465475,
      0.33665000387372856,
      -2.4611041595790084,
      -0.8026887954315498,
      -1.1241691169061596,
      -2.234762348507502
    ]
  },
  "atol": 1e-06,
  "rtol": 1e-06
}
