{
  "name": "4x2x5-proj-switch",
  "inputs": {
    "x": [
      [
        -0.23983401997356643,
        -1.426248560466531
      ],
      [
        -1.3094270415427685,
        -0.8742565159495794
      ],
      [
        -0.7429347259866751,
        0.3661215254546839
      ],
      [
        -0.6501729429645257,
        -0.2526061095709293
      ]
    ],
    "weights": [
      [
        0.21218660044094018,
        1.94279519266029,
        -0.9088924176429191,
        -0.4828091312937788,
        1.4020099398302919
      ],
      [
        -0.3894468879635512,
        -0.35316777609580313,
        0.20293329260044735,
        -1.3127735968430367,
        -0.08861278825242751
      ]
    ],
    "bias": [
      -0.08588766563178965,
      -0.027623301433243826,
      0.29003738742874413,
      1.5838527303458412,
      1.0738662893957744
    ],
    "alpha": 0.3,
    "beta": 0.5,
    "skip_weight": [
      [
        -1.5251695040496518,
        -0.5108968630610085,
        -0.531539186909736,
        0.9213895049764509,
        0.9433075496910843
      ],
      [
        -0.9160898107101395,
        0.06588443325962341,
        -0.8409012502843607,
        0.7871213340585717,
        0.5807797912600055
      ]
    ]
  },
  "params": {
    "mode": "switch",
    "activation": "relu",
    "convex_fraction": 0.5,
    "alpha_gate": "shifted_elu",
    "beta_gate": "scaled_elu",
    "has_projection": true,
    "dtype": "float64"
  },
  "expected_output": [
    [
      -1.044887351450019,
      -2.405969138299976,
      -1.2371746205508074,
      -5.853125671824726,
      -4.346704036257157
    ],
    [
      -0.9526375134262588,
      -2.376064554230089,
      -2.1757658649290006,
      -7.666159136207725,
      -6.980474474512496
    ],
    [
      -0.019724639601984784,
      -0.071075525881911,
      -0.6633939916912968,
      -1.3200795057596175,
      -2.1355063516379884
    ],
    [
      -0.3215461036471181,
      -0.8887071122362835,
      -0.9601211134611188,
      -3.1687600600455808,
      -3.225799925503678
    ]
  ],
  "expected_grads": {
    "weights": [
      [
        0.0,
        0.0,
        1.474126733569392,
        1.4741267371221056,
        -0.8181037856047624
      ],
      [
        1.2791087016239544,
        1.2791087016239544,
        -1.095681824381245,
        1.0956818208285313,
        1.095681824381245
      ]
    ],
    "bias": [
      -1.5030000000137989,
      -1.5030000035665125,
      0.0,
      0.0,
      -0.5010000023730754
    ],
    "alpha": -31.95387213139611,
    "beta": -12.522241334522732,
    "skip_weight": [
      [
        -0.8322767257595842,
        -2.2948841191805514,
        -2.247997962001591,
        -9.611580914281603,
        -9.824573645289547
      ],
      [
        -1.1374631441185556,
        -3.0367100620765086,
        -1.2262846986743625,
        -6.246439443913232,
        -5.08182306901972
      ]
    ]
  },
  "atol": 1e-06,
  "rtol": 0.001
}
