{
  "name": "4x3x3-identity-switch",
  "inputs": {
    "x": [
      [
        0.5934015892289911,
        0.6592738985789268,
        -1.2280237269937904
      ],
      [
        -1.5419386353878768,
        0.052888797012229746,
        0.9201926645972802
      ],
      [
        -1.2198248745695572,
        -1.8859205058465047,
        0.14654763622233255
      ],
      [
        0.07856043735651597,
        -1.0164384591810804,
        -1.3623794891356733
      ]
    ],
    "weights": [
      [
        -0.26535751448086214,
        1.0869641704871376,
        -0.5334896793336401
      ],
      [
        1.089984141758814,
        0.24157336036903124,
        -0.04228844342740101
      ],
      [
        2.028310922908285,
        -0.3426098855322835,
        1.9563886617941033
      ]
    ],
    "bias": [
      -1.7814785828035922,
      1.0328411588049935,
      -0.06803167162691375
    ],
    "alpha": 0.3,
    "beta": 0.5
  },
  "params": {
    "mode": "switch",
    "activation": "relu",
    "convex_fraction": 0.5,
    "alpha_gate": "shifted_elu",
    "beta_gate": "scaled_elu",
    "has_projection": false,
    "dtype": "float64"
  },
  "expected_output": [
    [
      0.7714220659976885,
      1.04920770873589,
      -1.5964308450919276
    ],
    [
      -1.9330745198046495,
      -0.2907491655992572,
      1.6871717129285984
    ],
    [
      -1.5857723369404244,
      -2.943995535057307,
      -0.03183813034048599
    ],
    [
      0.10212856856347076,
      -1.6354552908861304,
      -1.7710933358763754
    ]
  ],
  "expected_grads": {
    "weights": [
      [
        0.0,
        0.3366529757187209,
        1.3836435188707696
      ],
      [
        0.026497287031190808,
        -0.17893944459501654,
        0.9183488867137157
      ],
      [
        0.4610165245111375,
        0.763355120447784,
        0.5344368902981955
      ]
    ],
    "bias": [
      0.5009999997085401,
      -1.0019999994170803,
      0.0
    ],
    "alpha": -5.8036606684908065,
    "beta": -1.264910649112494
  },
  "atol": 1e-06,
  "rtol": 1e-06
}
