{
  "name": "6x4x4-identity-abs",
  "inputs": {
    "x": [
      [
        0.057352121380874206,
        1.193788639592843,
        -0.7292079867732802,
        -1.039658247047238
      ],
      [
        0.3072286443008403,
        -0.0942211669475612,
        1.022023221961229,
        0.8269617011283801
      ],
      [
        0.9586242719001163,
        -1.092212606858487,
        -0.9914447017606912,
        -0.970144460583529
      ],
      [
        -0.3942454355791701,
        -0.9411107965559675,
        -0.8972661160439747,
        0.19430854127007774
      ],
      [
        0.2520429212100398,
        -1.308705591250135,
        0.8737029716070447,
        0.8774551350967269
      ],
      [
        0.06159887760834235,
        1.0317316496732538,
        0.5469235931582963,
        1.1367805424983748
      ]
    ],
    "weights": [
      [
        -0.7784822152073891,
        -1.6536622783404546,
        -1.2413216244333867,
        0.35358885635787823
      ],
      [
        1.4517270023191988,
        2.1748747545222895,
        -0.37934197804318687,
        1.401101496602683
      ],
      [
        -1.3071718088060054,
        0.11217263399747132,
        -1.3253666138858229,
        -0.6232094422025392
      ],
      [
        -1.3084108036097686,
        -0.4712747980817756,
        1.1434528949564764,
        1.9012809103735193
      ]
    ],
    "bias": [
      -0.2418550694286102,
      -0.801579171805936,
      -0.7018936498445201,
      0.5177504711069191
    ],
    "alpha": 0.3,
    "beta": 0.5
  },
  "params": {
    "mode": "absolute",
    "activation": "elu",
    "convex_fraction": 0.5,
    "alpha_gate": "shifted_elu",
    "beta_gate": "scaled_elu",
    "has_projection": false,
    "dtype": "float64"
  },
  "expected_output": [
    [
      -0.19624105909769007,
      2.212163437867431,
      -2.116861113064532,
      -1.4620177489675572
    ],
    [
      1.540925297480006,
      -0.11951996562614468,
      1.7579133887649476,
      1.5425009313897808
    ],
    [
      0.7582785850834229,
      -1.8631089946672754,
      -2.4660261598729796,
      -2.832316899870242
    ],
    [
      -0.9840613337665419,
      -1.7094567227756907,
      -2.426614134328644,
      -0.31352471928896536
    ],
    [
      0.5003125666108377,
      -2.16929843533728,
      1.4969352458562377,
      1.4547911018211215
    ],
    [
      1.8366798821577113,
      2.414021185876811,
      1.1284103836696235,
      1.9731778456435909
    ]
  ],
  "expected_grads": {
    "weights": [
      [
        -0.32517141512755643,
        -0.2713067108750522,
        -0.37392514906642305,
        0.3692487000606093
      ],
      [
        0.04684784116193441,
        0.9473699305040384,
        0.5241813396672512,
        -0.6625500681423091
      ],
      [
        -1.0165163377706676,
        0.3788370208646086,
        1.0703512223209088,
        1.110910659907205
      ],
      [
        -1.177156308873606,
        -0.43880807210072703,
        -0.6324945074354105,
        -0.7114138664832126
      ]
    ],
    "bias": [
      1.7757259471729014,
      1.6087735406067338,
      1.7981857043380955,
      1.7290867133645804
    ],
    "alpha": 0.8823057222606678,
    "beta": -2.3751195099563915
  },
  "atol": 1e-06,
  "rtol": 1e-06
}
